digraph Tree {
node [shape=box, style="filled, rounded", color="black", fontname=helvetica] ;
edge [fontname=helvetica] ;
0 [label=<medianb2 &le; 0.147<br/>gini = 0.497<br/>samples = 15670<br/>value = [8427, 7243]>, fillcolor="#e5813924"] ;
1 [label=<nbrl &le; 0.048<br/>gini = 0.468<br/>samples = 10960<br/>value = [4097, 6863]>, fillcolor="#399de567"] ;
0 -> 1 [labeldistance=2.5, labelangle=45, headlabel="True"] ;
3 [label=<dif_ndvi &le; 0.103<br/>gini = 0.401<br/>samples = 7469<br/>value = [2075, 5394]>, fillcolor="#399de59d"] ;
1 -> 3 ;
11 [label=<gini = 0.5<br/>samples = 909<br/>value = [451, 458]>, fillcolor="#399de504"] ;
3 -> 11 ;
12 [label=<nbrl &le; 0.016<br/>gini = 0.373<br/>samples = 6560<br/>value = [1624, 4936]>, fillcolor="#399de5ab"] ;
3 -> 12 ;
13 [label=<gini = 0.336<br/>samples = 4943<br/>value = [1056, 3887]>, fillcolor="#399de5ba"] ;
12 -> 13 ;
14 [label=<medianb2 &le; 0.133<br/>gini = 0.456<br/>samples = 1617<br/>value = [568, 1049]>, fillcolor="#399de575"] ;
12 -> 14 ;
15 [label=<gini = 0.434<br/>samples = 1482<br/>value = [472, 1010]>, fillcolor="#399de588"] ;
14 -> 15 ;
16 [label=<gini = 0.411<br/>samples = 135<br/>value = [96, 39]>, fillcolor="#e5813997"] ;
14 -> 16 ;
4 [label=<medianb5 &le; 0.222<br/>gini = 0.487<br/>samples = 3491<br/>value = [2022, 1469]>, fillcolor="#e5813946"] ;
1 -> 4 ;
7 [label=<medianb2 &le; 0.126<br/>gini = 0.499<br/>samples = 2651<br/>value = [1281, 1370]>, fillcolor="#399de511"] ;
4 -> 7 ;
9 [label=<bai &le; 104.462<br/>gini = 0.493<br/>samples = 2440<br/>value = [1080, 1360]>, fillcolor="#399de534"] ;
7 -> 9 ;
17 [label=<gini = 0.5<br/>samples = 1552<br/>value = [779, 773]>, fillcolor="#e5813902"] ;
9 -> 17 ;
18 [label=<gini = 0.448<br/>samples = 888<br/>value = [301, 587]>, fillcolor="#399de57c"] ;
9 -> 18 ;
10 [label=<gini = 0.09<br/>samples = 211<br/>value = [201, 10]>, fillcolor="#e58139f2"] ;
7 -> 10 ;
8 [label=<gini = 0.208<br/>samples = 840<br/>value = [741, 99]>, fillcolor="#e58139dd"] ;
4 -> 8 ;
2 [label=<nbrl &le; -0.015<br/>gini = 0.148<br/>samples = 4710<br/>value = [4330, 380]>, fillcolor="#e58139e9"] ;
0 -> 2 [labeldistance=2.5, labelangle=-45, headlabel="False"] ;
5 [label=<gini = 0.496<br/>samples = 546<br/>value = [248, 298]>, fillcolor="#399de52b"] ;
2 -> 5 ;
6 [label=<gini = 0.039<br/>samples = 4164<br/>value = [4082, 82]>, fillcolor="#e58139fa"] ;
2 -> 6 ;
}